c -0.001366 0.361114 -0.286093 -0.016563 0.321838 0.430497 -0.033338 -0.463114 0.066347 0.429533 0.143895 -0.801088 0.570302 0.290835 -0.027529 0.040277 -0.095076 -0.315438 0.174476 0.346087 0.066791 0.033601 -0.028562 0.326322 0.003801 -0.215121 0.139032 -0.070181 -0.121446 -0.604967
C 0.065462 -0.555752 0.027779 0.079549 0.091948 0.024824 0.301823 0.359741 -0.075476 -0.106822 -0.273277 0.559215 0.007463 -0.088933 0.146000 -0.121843 0.382526 0.130025 0.062699 -0.220942 0.253495 -0.111676 0.435561 0.085553 0.026373 0.021165 -0.034261 0.203439 -0.082964 0.755803
( -0.136728 0.191656 0.038091 -0.239986 0.120870 0.057398 0.066692 0.073406 -0.471521 -0.404543 -0.474606 -0.004348 -0.075366 -0.036583 0.254846 -0.299375 -0.161693 0.022627 0.161546 0.169609 0.006847 -0.403612 0.187701 0.149944 -0.223066 0.045189 -0.103605 0.094145 -0.015096 0.279318
) -0.154422 0.305039 -0.027604 -0.036909 0.365837 0.351239 -0.054269 -0.197605 -0.102550 -0.115435 -0.110297 -0.298517 0.163942 0.156285 0.094582 -0.244322 -0.203304 -0.159679 0.251420 0.311976 0.050139 -0.202156 -0.008817 0.218981 -0.130396 0.052795 0.001524 -0.113460 -0.068229 -0.209493
1 0.176536 0.251760 -0.144828 -0.644289 0.620337 0.717980 0.277020 0.051950 -0.660888 -0.330582 -0.182437 -0.233824 0.390103 0.449922 0.398073 -0.423628 -0.348446 -0.385626 0.114257 0.521700 0.054688 -0.450748 0.249758 0.171087 0.237838 -0.347632 -0.087207 0.449842 -0.452205 0.432002
O -0.115243 -0.135728 0.107820 -0.083780 -0.200500 -0.287788 -0.024912 0.450136 -0.326522 -0.343388 -0.468031 0.147684 -0.244920 -0.152949 0.100996 -0.033684 0.100521 0.248892 0.227211 -0.173908 0.036404 -0.107566 0.043393 0.138972 -0.290540 -0.120093 -0.125843 0.293496 0.219541 0.484972
2 0.265989 0.098895 -0.198229 -0.386818 0.538035 0.723654 0.169679 0.161028 -0.265975 -0.054813 0.236540 -0.312273 0.340876 0.540489 0.107575 -0.175435 -0.200928 -0.359307 0.233934 0.357505 0.094539 0.016432 -0.020233 0.063764 0.310431 -0.443974 -0.024953 0.456776 -0.315359 0.310835
N 0.155659 -0.481178 -0.036220 -0.217848 -0.091595 -0.111175 0.458851 0.378000 -0.437589 -0.053110 -0.521323 0.365932 0.146864 -0.119209 0.289361 -0.057130 0.365256 0.118122 0.022576 -0.278386 0.253422 -0.246689 0.631094 0.076237 -0.000563 -0.164428 0.033050 0.472969 -0.101201 0.956262
= -0.174937 -0.188023 0.024108 -0.147036 -0.430942 -0.483899 0.115297 0.430405 -0.578153 -0.207034 -0.790885 -0.025949 -0.130876 -0.282924 0.210500 0.020995 0.267315 0.313523 0.210856 -0.228943 0.068002 -0.250529 0.403653 0.371077 -0.411451 -0.302722 -0.035225 0.518060 0.131262 0.622902
[ 0.325288 -0.505360 0.214702 -0.141905 0.064119 0.010281 0.195888 0.800045 -0.086836 -0.559080 0.110138 1.064938 -0.466331 0.069093 0.075277 -0.165890 0.094704 0.170702 -0.022995 -0.291331 0.055765 0.094837 -0.118522 -0.509759 0.304480 0.079409 -0.254514 0.229877 0.122164 1.054115
] 0.452218 -0.479011 0.234546 -0.182607 0.235996 0.211108 0.175368 0.804677 0.003328 -0.619652 0.377289 1.175491 -0.509931 0.224423 0.025826 -0.210002 -0.041329 0.082435 -0.072942 -0.210849 0.022054 0.190590 -0.291399 -0.736239 0.480069 0.134532 -0.296440 0.148166 0.076988 1.030224
@ 0.435632 -0.603585 0.481311 -0.100832 0.405545 0.264851 0.251108 0.853902 0.029482 -0.936293 0.215492 1.952477 -0.697950 0.100909 0.259384 -0.575636 -0.092848 0.126007 -0.281407 -0.109896 0.122246 -0.160310 -0.071523 -0.883901 0.544827 0.572222 -0.407055 -0.226300 0.079857 1.220297
H 0.553803 -0.594292 0.265564 -0.167544 0.443246 0.428683 0.321333 0.745053 0.085488 -0.626790 0.487867 1.473739 -0.441500 0.276000 0.112791 -0.352477 -0.022530 -0.018401 -0.189193 -0.162691 0.127447 0.118372 -0.135548 -0.859473 0.666998 0.281605 -0.295634 0.020957 -0.032625 1.138236
n 0.190008 0.078309 -0.245920 -0.000234 0.368810 0.558875 -0.151093 -0.019472 0.444884 0.325319 0.815478 -0.543347 0.243178 0.503284 -0.344336 0.215100 -0.050156 -0.298117 0.273968 0.070308 0.008605 0.656639 -0.606883 0.024270 0.319301 -0.472640 0.023120 0.232011 -0.017997 -0.276459
3 0.150995 -0.010733 -0.195057 0.121639 0.245708 0.458358 -0.052631 0.189149 0.331136 0.295580 0.580306 -0.352705 0.173007 0.435486 -0.261420 0.156222 0.046558 -0.167186 0.381753 0.083087 0.108869 0.537876 -0.398467 0.018367 0.170973 -0.374954 0.050787 0.179346 0.022826 -0.103497
F -0.144776 0.671592 -0.182876 0.007043 1.006652 1.003465 -0.132558 -0.331674 -0.028947 -0.290204 -0.003151 -0.611961 0.334469 0.512826 0.002374 -0.571569 -0.335416 -0.317840 0.757064 0.567402 0.209149 -0.262192 -0.240935 0.327381 -0.199692 0.171780 -0.054788 -0.327516 -0.029737 -0.286276
+ 0.458196 -0.481612 0.131172 -0.207507 0.215575 0.244847 0.267033 0.718660 -0.051424 -0.432861 0.344046 0.943596 -0.324834 0.250690 0.041758 -0.145505 0.042891 0.025085 -0.038039 -0.211637 0.064950 0.198083 -0.135199 -0.619453 0.478730 -0.001288 -0.205493 0.270341 -0.021650 1.010971
S -0.065054 -0.216240 -0.016825 -0.203513 -0.264658 -0.290412 0.160412 0.440622 -0.540151 -0.210600 -0.648001 0.026532 -0.062497 -0.156449 0.212390 -0.022780 0.222084 0.243189 0.198982 -0.158836 0.102951 -0.241161 0.369922 0.340229 -0.278404 -0.344796 -0.063519 0.539069 0.062339 0.691800
- 0.043249 0.096251 -0.141860 -0.055054 -0.077474 0.013397 -0.192010 0.258609 0.033448 0.087816 0.225537 -0.497366 -0.009495 0.215243 -0.239415 0.248733 -0.013840 0.014807 0.325525 -0.066042 -0.078286 0.404144 -0.460468 0.098181 -0.047251 -0.441246 -0.017489 0.356904 0.163449 -0.050319
l -0.114118 0.132967 -0.234414 0.058987 0.443055 0.475668 -0.029986 -0.255683 0.031568 0.213282 -0.078696 -0.569154 0.511023 0.268298 -0.009438 -0.051508 -0.005234 -0.195645 0.299238 0.366984 0.159809 -0.134303 0.154517 0.538200 -0.092132 -0.229784 0.108156 0.078833 -0.295816 -0.262399
s -0.039682 0.327673 -0.211836 0.018111 -0.004951 0.145670 -0.052280 -0.450494 0.079694 0.508194 0.181666 -0.752004 0.427282 0.133237 -0.054152 0.169679 -0.112486 -0.255302 -0.037803 0.277400 -0.059219 0.059103 0.027746 0.233539 0.010842 -0.182775 0.208377 -0.057662 -0.197499 -0.729258
o -0.066826 0.374441 -0.208364 0.055307 0.181197 0.329258 -0.240334 -0.451146 0.336022 0.446770 0.515079 -0.846448 0.351066 0.277561 -0.230305 0.215623 -0.199580 -0.314940 0.094497 0.273521 -0.092422 0.348467 -0.400409 0.213874 0.081466 -0.259093 0.125889 -0.060511 -0.073875 -0.851552
4 -0.071490 -0.143713 -0.100987 0.756985 -0.124965 -0.084869 -0.379670 -0.055866 1.072331 0.670937 0.800670 -0.270500 -0.036901 0.077385 -0.646274 0.527678 0.309337 0.092295 0.311165 -0.324196 0.075778 0.955447 -0.772142 -0.016419 -0.063526 0.014562 0.132830 -0.395573 0.470245 -0.772253
/ -0.212781 -0.088227 -0.183655 -0.490371 -0.822126 -0.794679 0.440281 -0.017101 -1.194055 0.260266 -1.388879 -0.651321 0.401787 -0.530452 0.517072 0.175214 0.375265 0.236822 -0.143389 -0.128705 0.037717 -0.746761 1.283108 0.767744 -0.508336 -0.594090 0.247237 0.887560 -0.325834 0.546649
# 0.017323 -0.442528 -0.138762 -0.293967 -0.169192 -0.213225 0.578280 0.138302 -0.684928 0.162164 -0.964008 0.046441 0.466006 -0.267079 0.472047 -0.079986 0.475075 0.111845 -0.010421 -0.216479 0.326867 -0.573399 1.079397 0.478396 -0.187164 -0.276415 0.158207 0.573299 -0.246700 0.888644
B -0.133316 1.126441 0.008391 -0.725351 0.268650 0.494716 0.057828 -0.812260 -0.852706 -0.383161 -0.105191 -0.666805 0.181226 0.127111 0.597147 -0.548846 -1.053435 -0.661288 -0.542107 1.127406 -0.454116 -0.845184 0.304676 -0.100217 0.165106 0.251599 -0.024359 -0.216891 -0.612097 -0.894886
r -0.143612 1.160512 0.024126 -0.737731 0.289761 0.522083 0.010287 -0.884431 -0.854954 -0.396999 -0.060323 -0.723303 0.174402 0.133339 0.584352 -0.561965 -1.117354 -0.693541 -0.597539 1.178374 -0.485896 -0.877298 0.292169 -0.112082 0.190338 0.278891 -0.021291 -0.242151 -0.642952 -0.994841
\ -0.145020 -0.116397 -0.222184 -0.392410 -0.763605 -0.698480 0.409984 0.023491 -0.962892 0.383390 -1.168205 -0.655718 0.437453 -0.427559 0.422423 0.244572 0.401572 0.217653 -0.053749 -0.192121 0.075733 -0.544499 1.074110 0.696033 -0.452869 -0.597811 0.265508 0.810930 -0.232890 0.467428
5 -0.225817 -0.292984 0.132262 1.228088 -0.575722 -0.763619 -0.635069 -0.413870 1.682826 0.835490 0.853852 0.170038 -0.345752 -0.445599 -0.882030 0.770520 0.470911 0.383579 -0.122719 -0.752365 -0.036486 1.077600 -0.906309 -0.264796 -0.189344 0.613291 0.169572 -1.092101 0.790146 -1.260607
I -0.125314 0.658970 -0.130532 -0.500132 0.352571 0.304890 0.106249 -0.699045 -0.594279 0.153785 -0.528074 -0.793996 0.661181 0.181208 0.392585 -0.254707 -0.405009 -0.320187 0.029220 0.517744 0.020839 -0.666801 0.397066 0.447404 -0.162030 -0.152826 0.153991 -0.038526 -0.341042 -0.426858
P -0.085298 -0.332060 0.308317 -0.041736 -0.418111 -0.630384 -0.065669 0.699870 -0.252326 -0.612755 -0.501545 0.815091 -0.682388 -0.359253 0.091947 -0.088129 0.101063 0.468555 -0.018348 -0.350538 -0.064572 -0.160860 -0.027861 -0.125215 -0.230494 0.087677 -0.246188 0.165248 0.344882 0.783340
6 -0.209511 -0.318156 0.433011 1.376381 -1.047335 -1.450268 -0.672994 -0.781190 1.855421 0.749717 0.737832 0.839109 -0.684499 -0.986549 -0.886518 0.874710 0.426756 0.622049 -0.893248 -1.004232 -0.302216 0.784027 -0.712166 -0.772100 -0.101695 1.300745 0.189263 -1.730557 0.774940 -1.553057
7 -0.197867 -0.159938 0.289519 1.292756 -1.102246 -1.364619 -0.737066 -0.818756 1.781109 0.924980 0.815045 0.366131 -0.528934 -0.843377 -0.972884 1.000363 0.379249 0.552408 -0.759420 -0.890265 -0.309663 0.896276 -0.790359 -0.615957 -0.149453 0.959936 0.252112 -1.486866 0.719386 -1.717672
8 -0.103087 -0.005968 0.058465 0.370211 -0.433470 -0.489494 -0.243796 -0.298310 0.471806 0.381389 0.180666 -0.062078 -0.096842 -0.282431 -0.274705 0.370784 0.115157 0.176678 -0.225235 -0.245756 -0.106993 0.244922 -0.159748 -0.092940 -0.111393 0.199678 0.107934 -0.352665 0.193044 -0.589655
<unk> 0.018356 -0.009290 -0.003737 -0.019090 0.001555 0.003201 0.019581 0.018442 -0.021097 0.004250 -0.018986 0.008050 0.018900 0.007185 0.017068 0.001354 0.003458 -0.003094 0.003583 -0.001442 0.012154 -0.010863 0.019068 0.002265 0.004758 -0.013430 0.002021 0.016774 -0.001651 0.032051
